tree
version=v4
num_class=1
num_tree_per_iteration=1
label_index=0
max_feature_idx=74
objective=lambdarank
feature_names=Column_0 Column_1 Column_2 Column_3 Column_4 Column_5 Column_6 Column_7 Column_8 Column_9 Column_10 Column_11 Column_12 Column_13 Column_14 Column_15 Column_16 Column_17 Column_18 Column_19 Column_20 Column_21 Column_22 Column_23 Column_24 Column_25 Column_26 Column_27 Column_28 Column_29 Column_30 Column_31 Column_32 Column_33 Column_34 Column_35 Column_36 Column_37 Column_38 Column_39 Column_40 Column_41 Column_42 Column_43 Column_44 Column_45 Column_46 Column_47 Column_48 Column_49 Column_50 Column_51 Column_52 Column_53 Column_54 Column_55 Column_56 Column_57 Column_58 Column_59 Column_60 Column_61 Column_62 Column_63 Column_64 Column_65 Column_66 Column_67 Column_68 Column_69 Column_70 Column_71 Column_72 Column_73 Column_74
feature_infos=[0.44985067844390869:0.82265233993530273] [0.44985067844390869:0.83653122186660767] [0:9] [0.44985067844390869:0.83653122186660767] [0.50607407093048096:0.76828426122665405] [0:1] [0.40354976058006287:0.79361200332641602] [0.40354976058006287:0.80700111389160156] [0:7] [0.40354976058006287:0.80700111389160156] [0.50420725345611572:0.73961222171783447] [0:0.96719294786453247] [0.40337789058685303:0.77008640766143799] [0.40337789058685303:0.7735893726348877] [0:7] [0.40337789058685303:0.7735893726348877] [0.45769724249839783:0.67572152614593506] [0:1] [0.439056396484375:0.76183199882507324] [0.439056396484375:0.78372824192047119] [0:9] [0.439056396484375:0.768623948097229] [0.51607346534729004:0.74686235189437866] [0:0.8745076060295105] [0.48217573761940002:0.83121514320373535] [0.48217573761940002:0.83141493797302246] [1:9] [0.48217573761940002:0.83141493797302246] [0.64139711856842041:0.90384083986282349] [0:1] [0.42782860994338989:0.75284582376480103] [0.42782860994338989:0.77082252502441406] [0:8] [0.42782860994338989:0.77082252502441406] [0.49302965402603149:0.65580999851226807] [0:1] [1:15] [0.0059760226868093014:1] [1:9] [10:58] [0:1] [0:1] [0:1] [0:1] [0:999] [0:1] [0.125:0.96296298503875732] [0:0.8571428656578064] [0:10] [0.20000000298023224:1] [0:95] [0:1] [-20:11] [0:1] [0:1] [0:0.85000002384185791] [0:1] [0:0.85000002384185791] none [0:0.79714286327362061] [0:5] none [0:1] [0.11999999731779099:1] [0:331] [0:24] [2.0999999046325684:279.89999389648438] [10:1852] [0:242] [0:1340] [0:80] [-1:0.93000000715255737] [0:1] [0:1] [0:1]
tree_sizes=1746 1721 1733 1739 1730 1743 1743 1757 1735 1750 1746 1741 1747 1746 1748 1745

Tree=0
num_leaves=15
num_cat=0
split_feature=47 47 35 25 36 12 48 51 2 63 3 36 70 57
split_gain=121.976 4.55296 3.27491 1.45241 1.29126 0.569987 0.52955 0.39965 0.301042 0.229616 0.212681 0.216977 0.200999 0.192562
threshold=1.0000000180025095e-35 0.34848485887050634 0.1302575767040253 0.78063377737998974 10.449999809265138 0.60362967848777782 1.0000000180025095e-35 1.0000000180025095e-35 3.5000000000000004 0.62500000000000011 0.61093628406524669 5.5499999523162851 14.500000000000002 0.20511981844902041
decision_type=2 2 2 2 2 2 2 2 2 2 2 2 2 2
left_child=2 3 4 13 8 -5 -4 -6 -1 -8 -11 -12 -7 -2
right_child=1 -3 6 5 7 12 9 -9 -10 10 11 -13 -14 -15
leaf_value=-0.1513392626571535 0.09407711471885094 0.15176756808862141 -0.10251498004528381 0.053757141613600422 -0.072101607294265693 -0.08339333355696546 0.019199720006613612 -0.15995375183737964 -0.1255456709708723 -0.0067639814890913842 -0.022190299112335565 -0.11989936683156936 -0.0041112769849115331 0.15454247300201518
leaf_weight=14.655520215455917 3.2194691367913069 17.268730514711933 0.67166252562310491 1.1886574348900469 2.165821682545356 0.30219095083884884 0.63962401327444229 0.39127191033912812 3.6090400196844703 0.59847052802797385 0.27118100528605282 0.31372785253915936 0.63407608086708933 0.37650487630162377
leaf_count=4017 361 865 130 159 511 66 116 127 1044 109 40 47 99 16
internal_value=0.000516844 0.131276 -0.12841 0.0694219 -0.138788 0.0169847 -0.0417917 -0.0855442 -0.146243 -0.0194189 -0.0402926 -0.0745986 -0.0297005 0.100408
internal_weight=46.3059 22.9896 23.3163 5.7209 20.8217 2.12492 2.49467 2.55709 18.2646 1.823 1.18338 0.584909 0.936267 3.59597
internal_count=7707 1566 6141 701 5699 324 442 638 5061 312 196 87 165 377
is_linear=0
shrinkage=0.08


Tree=1
num_leaves=15
num_cat=0
split_feature=47 47 47 7 7 47 57 5 31 29 13 47 29 49
split_gain=120.404 18.301 6.61734 5.53344 4.68504 3.04287 2.47757 1.59457 0.914978 0.753606 0.736211 0.714975 0.714317 0.526546
threshold=0.41428571939468389 1.0000000180025095e-35 0.52272728085517894 0.51321920752525341 0.71288347244262706 0.44949495792388922 1.0000000180025095e-35 0.19958471506834033 0.50468572974205028 0.54990914463996898 0.61397531628608715 0.34848485887050634 0.18323636054992679 0.40000001341104513
decision_type=2 2 2 2 2 2 2 2 2 2 2 2 2 2
left_child=1 -1 3 7 6 -5 11 8 -2 10 12 -3 -7 -12
right_child=2 4 -4 5 -6 9 -8 -9 -10 -11 13 -13 -14 -15
leaf_value=-0.13283308095719673 0.056847221397649576 -0.035867860090643806 0.14924141934648424 0.029439663132557504 0.13418885993567556 0.089976177899186882 -0.083527186466525558 0.081628209780891248 -0.0043840617399497836 0.14508191760814787 0.11003483274497119 0.0082873555725286336 0.13420481273277166 0.041468085554377129
leaf_weight=27.076961156679317 2.1664944626390952 4.3702992952894402 11.508882329741025 3.056638769805434 1.1217385092022585 3.8463639393448847 4.6443166267708866 2.9701969586312771 5.5964660812169313 4.3003552071750155 1.2620539645431557 5.0693285316228867 5.9556427649222314 1.6590394366066901
leaf_count=6074 41 335 184 45 22 60 394 49 125 80 32 68 66 59
internal_value=0.00208891 -0.093392 0.0974807 0.0781479 -0.0231587 0.102933 -0.0356909 0.0317778 0.0127044 0.11613 0.106344 -0.0121553 0.116849 0.0710922
internal_weight=84.6048 42.2826 42.3221 30.8133 15.2057 20.0801 14.0839 10.7332 7.76296 17.0235 12.7231 9.43963 9.80201 2.92109
internal_count=7634 6893 741 557 819 342 797 215 166 297 217 403 126 91
is_linear=0
shrinkage=0.08


Tree=2
num_leaves=15
num_cat=0
split_feature=47 47 48 47 51 56 57 47 1 20 63 56 46 47
split_gain=136.875 6.44245 4.08532 2.15991 1.22012 1.1717 0.983042 0.912312 0.714402 0.529161 0.444716 0.389304 0.483534 0.321579
threshold=0.29285715520381933 0.43650794029235845 2.5000000000000004 0.52272728085517894 1.0000000180025095e-35 0.14650347083806994 0.095165461301803603 0.36931818723678594 0.5443289875984193 5.5000000000000009 0.45000000298023229 0.21839720755815509 0.41428571939468389 0.23611111193895343
decision_type=2 2 2 2 2 2 2 2 2 2 2 2 2 2
left_child=2 6 5 4 8 9 7 -2 -3 -1 -8 -10 -13 -4
right_child=1 3 13 -5 -6 -7 10 -9 11 -11 -12 12 -14 -15
leaf_value=-0.12518323323391664 0.013164485666427818 0.074652791968424989 -0.062155052730376269 0.13080383893330924 0.028129343027317479 -0.05265893699903787 0.013068889344383097 0.077357585895285477 0.11872454763610281 -0.071075966840541266 -0.082825323238133144 0.12292876280054113 0.033808571311789465 -0.021068886601984218
leaf_weight=30.951697200071067 3.1470019868575028 5.1574165616184482 2.4274338039813292 18.810165209695697 1.7572212248487638 1.5829349970445026 0.59860914950331767 2.5773792900145054 8.0057432434696221 1.2017083349637676 0.64088170375180198 0.72630846806896332 0.84054770026068582 2.4494815104935697
leaf_count=5573 237 191 285 177 66 233 63 99 165 165 94 40 45 238
internal_value=-0.00107907 0.0984026 -0.109959 0.112276 0.0911387 -0.119853 0.0280807 0.0420672 0.0986554 -0.123161 -0.0365134 0.111587 0.0751198 -0.0415191
internal_weight=80.8745 42.2613 38.6133 35.2974 16.4872 33.7363 6.96387 5.72438 14.73 32.1534 1.23949 9.5726 1.56686 4.87692
internal_count=7671 1177 6494 684 507 5971 493 336 441 5738 157 250 85 523
is_linear=0
shrinkage=0.08


Tree=3
num_leaves=15
num_cat=0
split_feature=47 47 48 48 35 20 57 47 48 1 63 47 3 63
split_gain=114.233 5.861 3.47891 1.2349 1.13935 1.06427 0.821142 0.600502 0.384358 0.383186 0.359606 0.299151 0.336523 0.266054
threshold=0.26136364042758947 0.44949495792388922 2.5000000000000004 1.5000000000000002 0.2188568785786629 5.5000000000000009 0.09133330732584001 0.34848485887050634 1.0000000180025095e-35 0.55746597051620495 0.45000000298023229 0.21111111342906955 0.60542583465576183 0.62500000000000011
decision_type=2 2 2 2 2 2 2 2 2 2 2 2 2 2
left_child=2 6 4 9 5 -1 7 -2 -6 -3 -8 -4 -13 -10
right_child=1 3 11 -5 8 -7 10 -9 13 -11 -12 12 -14 -15
leaf_value=-0.11892884322952957 0.01993700195995244 0.068828853387034011 -0.057530127532022864 0.11720656725713113 -0.11057301147406574 -0.04469609190489212 0.013106358478723693 0.066565882164097132 -0.00060147806937767918 0.10128741849886728 -0.071660688232940126 0.0062092270018453497 -0.059887422062067472 -0.065044133535168303
leaf_weight=29.672697937581692 3.690774464979766 5.4296637494117039 2.0031070446129879 22.19414952583611 0.63574870466254596 1.2897921539843071 0.67256089393049456 3.392216351814568 0.71577927004545905 4.0744696371257305 0.61152645898982882 1.5317762023769321 0.72694820398464788 0.95984050375409424
leaf_count=5447 264 201 257 341 124 171 65 122 79 115 89 119 94 141
internal_value=-0.00279531 0.0911533 -0.103076 0.106874 -0.111792 -0.115837 0.0315978 0.0422687 -0.0576105 0.082744 -0.0272626 -0.0350232 -0.0150633 -0.037516
internal_weight=77.6011 40.0654 37.5357 31.6983 33.2739 30.9625 8.36708 7.08299 2.31137 9.50413 1.28409 4.26183 2.25872 1.67562
internal_count=7629 1197 6432 657 5962 5618 540 386 344 316 154 470 213 220
is_linear=0
shrinkage=0.08


Tree=4
num_leaves=15
num_cat=0
split_feature=47 47 48 47 13 20 51 7 57 63 47 36 48 21
split_gain=98.7066 5.85447 3.68487 1.72004 0.93164 0.929465 0.522108 0.608763 0.488988 0.473552 0.326309 0.317811 0.25333 0.245009
threshold=0.26136364042758947 0.44949495792388922 2.5000000000000004 0.52272728085517894 0.6031380593776704 5.5000000000000009 1.0000000180025095e-35 0.53801265358924877 0.12176785618066789 0.45000000298023229 0.34848485887050634 7.5499999523162851 1.0000000180025095e-35 0.61731544137001049
decision_type=2 2 2 2 2 2 2 2 2 2 2 2 2 2
left_child=2 8 4 6 5 -1 7 11 10 -10 -2 -3 -6 -9
right_child=1 3 -4 -5 12 -7 -8 13 9 -11 -12 -13 -14 -15
leaf_value=-0.110419462736055 0.017417580547631775 0.046725241435895709 -0.025373470833950224 0.11526126118025599 -0.10656325966277848 -0.043117762603413205 0.0368033602240131 0.10563311614996632 0.018094815547471384 -0.084239223308842023 0.051536102385116966 0.083460084477420052 -0.03660066935228546 0.068272245635666834
leaf_weight=29.276423320639882 4.0850889699067903 3.0024947673082316 4.3265448417514554 18.545691741630435 0.41833557491190676 1.3749692444689561 1.6650226311758167 6.3870824119076133 0.72884126286953665 0.4800043951254338 3.1988480556756258 3.0266976561397314 1.5908600045368073 1.3631362775340674
leaf_count=5539 282 117 469 192 79 175 70 145 68 86 128 91 206 77
internal_value=0.000801996 0.0839936 -0.0947507 0.0988384 -0.103941 -0.1074 0.0791179 0.0842309 0.0245811 -0.0225396 0.0324012 0.0651664 -0.0511676 0.099062
internal_weight=79.47 42.4829 36.9871 33.9901 32.6606 30.6514 15.4444 13.7794 8.49278 1.20885 7.28394 6.02919 2.0092 7.75022
internal_count=7724 1256 6468 692 5999 5714 500 430 564 154 410 208 285 222
is_linear=0
shrinkage=0.08


Tree=5
num_leaves=15
num_cat=0
split_feature=47 47 48 47 13 20 4 34 8 21 48 63 22 25
split_gain=84.6659 5.33562 3.41898 1.59876 0.775528 0.766343 0.480676 0.380311 0.300119 0.247635 0.203715 0.202254 0.180157 0.220963
threshold=0.26136364042758947 0.43650794029235845 2.5000000000000004 0.52272728085517894 0.59858155250549328 5.5000000000000009 0.57535076141357433 0.59491968154907238 3.5000000000000004 0.62949013710021984 1.0000000180025095e-35 0.62500000000000011 0.56899648904800426 0.66061612963676464
decision_type=2 2 2 2 2 2 2 2 2 2 2 2 2 2
left_child=2 7 4 6 5 -1 8 9 12 -2 -6 -12 13 -3
right_child=1 3 -4 -5 10 -7 -8 -9 -10 -11 11 -13 -14 -15
leaf_value=-0.10535128067991348 0.011832511999004286 0.035811047577297285 -0.024946731310459429 0.1102485290059526 -0.099838583987821944 -0.0431067658476064 0.087553935993748097 0.042588888218022695 0.086748533810151379 -0.044341071564609889 -0.0051200802512977803 -0.063135882659373074 0.025181614857081019 0.073737502580914105
leaf_weight=28.034888456342749 4.3615878792479625 1.6269208528101469 4.5344784541521213 16.599992716684937 0.42711559217423101 1.3257693042978633 8.9007423804141563 2.7289442524779588 1.9748920220881698 0.56762372259981919 0.6895076469518242 0.86960915708914399 1.3644362334161995 2.4845191417261958
leaf_count=5481 296 69 490 182 91 171 267 157 60 70 70 133 65 85
internal_value=-0.000335128 0.0787799 -0.0898756 0.0927594 -0.0992678 -0.102541 0.0750045 0.0186288 0.0600128 0.00536384 -0.0508886 -0.0374788 0.0503705 0.0587298
internal_weight=76.491 40.6097 35.8814 32.9515 31.3469 29.3607 16.3515 7.65816 7.45077 4.92921 1.98623 1.55912 5.47588 4.11144
internal_count=7687 1251 6436 728 5946 5652 546 523 279 366 294 203 219 154
is_linear=0
shrinkage=0.08


Tree=6
num_leaves=15
num_cat=0
split_feature=47 47 47 25 57 20 1 47 47 57 36 5 63 28
split_gain=73.3094 6.72507 1.35144 1.32727 0.728838 0.685295 0.548413 0.453562 0.417302 0.361333 0.251545 0.21846 0.193459 0.186331
threshold=0.23611111193895343 0.44949495792388922 0.52272728085517894 0.71395435929298412 0.20511981844902041 5.5000000000000009 0.5443289875984193 1.0000000180025095e-35 0.36931818723678594 0.1100004054605961 3.7500000000000004 0.19282491505146029 0.62500000000000011 0.65425214171409618
decision_type=2 2 2 2 2 2 2 2 2 2 2 2 2 2
left_child=3 4 6 5 8 7 11 13 12 -8 -6 -3 -2 -1
right_child=1 2 -4 -5 10 -7 9 -9 -10 -11 -12 -13 -14 -15
leaf_value=-0.043040650310133717 0.025898424043145084 0.042900485769795972 0.10649250962633505 -0.043943132625429676 0.013931365566863496 -0.041184870106921782 0.091690129352007363 -0.017675975680783503 0.043984061673791743 0.046991740272784827 -0.076613528346621204 0.07461155282199651 -0.002944010463160277 -0.10159254197958792
leaf_weight=0.35238703479991329 2.5588037748821044 3.9734478201717165 14.793160563334821 3.3874321726616463 0.27334277704358179 1.3496337588876475 7.7222996670752746 0.42627746192738314 3.4296460270415992 1.3615266629494724 0.69729543337598443 2.1387513838708401 3.5577214614022523 26.977573157055303
leaf_count=52 159 162 171 464 28 171 165 37 147 107 122 65 271 5474
internal_value=-0.00182731 0.0699765 0.0892801 -0.0913376 0.0149314 -0.0968535 0.0725241 -0.0995604 0.0216469 0.0849905 -0.0511151 0.0539967 0.00912201 -0.100838
internal_weight=72.9993 40.506 29.9892 32.4933 10.5168 29.1059 15.196 27.7562 9.54617 9.08383 0.970638 6.1122 6.11653 27.33
internal_count=7595 1397 670 6198 727 5734 499 5563 577 272 150 227 430 5526
is_linear=0
shrinkage=0.08


Tree=7
num_leaves=15
num_cat=0
split_feature=47 47 47 13 20 47 1 47 15 57 48 36 28 33
split_gain=67.1243 6.78523 1.50105 1.31334 0.624307 0.602408 0.596167 0.460298 0.333444 0.317507 0.238877 0.228561 0.221658 0.168601
threshold=0.23611111193895343 0.44949495792388922 0.52272728085517894 0.58393314480781566 5.5000000000000009 0.36931818723678594 0.56685525178909313 1.0000000180025095e-35 0.60468769073486339 0.11635859683156015 1.0000000180025095e-35 3.6499999761581425 0.75302720069885265 0.43237127363681799
decision_type=2 2 2 2 2 2 2 2 2 2 2 2 2 2
left_child=3 5 6 4 7 8 -3 13 -2 -8 -5 -10 -11 -1
right_child=1 2 -4 10 -6 -7 9 -9 11 12 -12 -13 -14 -15
leaf_value=-0.03073380897055249 0.0081994406846932662 0.050522305666189371 0.10396839974966814 -0.093797274728390279 -0.04234595950387491 0.039439581652290279 0.089513402183128032 -0.0071162103029313393 0.012029711990864209 0.0013733049491759159 -0.035684186278373428 -0.056766515518561156 0.072498568099798544 -0.099025356502099648
leaf_weight=0.23347515892238746 5.8451585369184595 6.6398064102977541 15.485700549092142 0.52693878370337133 1.4006809969432641 3.6851171418093145 6.8523174710571748 0.35835660342126985 0.45271240826696135 0.4624755661934612 3.213015602203086 0.97406117082573473 0.71237890468910336 25.648344083223492
leaf_count=38 397 243 191 121 173 174 156 29 40 39 412 148 66 5441
internal_value=-0.000253805 0.067005 0.0865972 -0.0883647 -0.0943847 0.0130891 0.0682563 -0.0971625 -0.00026417 0.0829253 -0.043872 -0.0349376 0.0445005 -0.0984093
internal_weight=72.4905 41.1097 30.1527 31.3808 27.6409 10.957 14.667 26.2402 7.27193 8.02717 3.73995 1.42677 1.17485 25.8818
internal_count=7668 1454 695 6214 5681 759 504 5508 585 261 533 188 105 5479
is_linear=0
shrinkage=0.08


Tree=8
num_leaves=15
num_cat=0
split_feature=47 47 47 13 20 16 48 15 28 34 36 23 5 23
split_gain=59.0549 6.32616 1.53781 1.20341 0.697188 0.608879 0.485641 0.379109 0.308479 0.286878 0.222911 0.216791 0.1964 0.191541
threshold=0.23611111193895343 0.44949495792388922 0.52272728085517894 0.58393314480781566 5.5000000000000009 0.58507543802261364 3.5000000000000004 0.60652619600296032 0.70990109443664562 0.59491968154907238 3.7500000000000004 0.15096561610698703 0.1956819295883179 0.15477720648050311
decision_type=2 2 2 2 2 2 2 2 2 2 2 2 2 2
left_child=3 7 5 4 6 8 -1 9 -3 -2 -9 -7 -10 -12
right_child=1 2 -4 -5 -6 11 -8 10 12 -11 13 -13 -14 -15
leaf_value=-0.09536945804102491 0.0060294641454479306 0.067066638669089379 0.10159718302792664 -0.041724120357858101 -0.037433241042702903 0.089501889860531772 -0.013693100478502949 0.020558879963836891 0.024213384644323245 0.036350721668363832 0.0012353770473101809 0.056579370891902195 0.062556997171528197 -0.063710905643527715
leaf_weight=24.324515078216802 5.3376262439414841 3.483408063650133 14.511915553361176 3.6724721093196413 1.488397208508103 5.4827900226227939 0.47500934544950624 0.53268923470750351 3.0558690913021564 3.1908441092818975 0.44654015405103542 1.6699621323496101 1.1870321924798188 0.83234775718301535
leaf_count=5440 351 98 190 525 175 123 43 43 129 146 35 109 45 148
internal_value=0.000184032 0.0641336 0.0830679 -0.0846206 -0.0906133 0.0649958 -0.093805 0.0103139 0.0494247 0.0173739 -0.0229228 0.0818154 0.0349407 -0.0410341
internal_weight=69.6914 39.731 29.391 29.9604 26.2879 14.8791 24.7995 10.34 7.72631 8.52847 1.81158 7.15275 4.2429 1.27889
internal_count=7600 1417 694 6183 5658 504 5483 723 272 497 226 232 174 183
is_linear=0
shrinkage=0.08


Tree=9
num_leaves=15
num_cat=0
split_feature=47 47 25 47 20 51 16 47 47 20 59 15 63 36
split_gain=51.0363 6.04139 1.73155 1.60461 0.595274 0.562662 0.564971 0.417809 0.36682 0.312628 0.261852 0.222563 0.197139 0.188489
threshold=0.21111111342906955 0.44949495792388922 0.714796543121338 0.52272728085517894 5.5000000000000009 1.0000000180025095e-35 0.57857653498649608 0.34848485887050634 1.0000000180025095e-35 3.5000000000000004 0.46040000021457678 0.60652619600296032 0.62500000000000011 4.4500000476837167
decision_type=2 2 2 2 2 2 2 2 2 2 2 2 2 2
left_child=2 7 4 5 8 6 9 11 -1 -3 12 -2 -4 -13
right_child=1 3 10 -5 -6 -7 -8 -9 -10 -11 -12 13 -14 -15
leaf_value=-0.093525661581197683 0.0051798184845670957 0.035626346303728677 -0.014423547984399425 0.099889387364678145 -0.039401825995868792 0.014438850309999687 0.083294630986284285 0.032167272109492447 -0.01568139687925885 0.074843146528644433 0.038989857391729742 0.00017116236236226057 -0.054718901812046437 -0.059574875003501886
leaf_weight=23.750681870616983 6.1663867644965631 3.9364424617961049 1.4464258914813397 13.002653153613208 1.445409973617642 1.5064510004594929 6.1323230313137174 3.5078820190392435 0.39384240005165239 1.9431536495685575 0.32873510965146113 0.65513787860982098 1.679032673127949 0.69800796662457287
leaf_count=5555 401 155 167 181 169 64 212 177 35 51 36 64 253 120
internal_value=-0.00246269 0.0591329 -0.0820939 0.079825 -0.0892705 0.0605261 0.066306 0.0093683 -0.0922559 0.0485871 -0.0289272 -0.00126748 -0.0360707 -0.0306483
internal_weight=66.5926 37.5484 29.0441 26.521 25.5899 13.5184 12.0119 11.0274 24.1445 5.8796 3.45419 7.51953 3.12546 1.35315
internal_count=7640 1425 6215 663 5759 482 418 762 5590 206 456 585 420 184
is_linear=0
shrinkage=0.08


Tree=10
num_leaves=15
num_cat=0
split_feature=47 47 48 47 7 51 1 34 36 29 25 35 36 36
split_gain=46.8395 3.81273 3.1739 1.53785 0.714595 0.521751 0.635947 0.355832 0.307231 0.299442 0.461944 0.263062 0.171576 0.161705
threshold=0.29285715520381933 0.44949495792388922 2.5000000000000004 0.52272728085517894 0.54623883962631237 1.0000000180025095e-35 0.56685525178909313 0.5504475235939027 10.949999809265138 0.1029193438589573 0.64124497771263134 0.072115078568458571 7.5499999523162851 11.949999809265138
decision_type=2 2 2 2 2 2 2 2 2 2 2 2 2 2
left_child=2 8 4 5 13 6 11 9 -2 -6 -11 12 -3 -1
right_child=1 3 -4 -5 7 -7 -8 -9 -10 10 -12 -13 -14 -15
leaf_value=-0.094358765069157122 0.0092673029593247861 0.039526633309559987 -0.015567220517701376 0.098343474517951737 -0.090967700677297661 0.013100043369226553 0.081162530754173012 -0.078892199273911959 0.066251389812924527 0.065541972632373893 -0.042703760275689485 0.015560631494066997 0.071613381885245214 -0.059409617228929575
leaf_weight=17.439650036161776 7.1021900346968314 2.203347597271204 5.1754891730379304 12.448848212137817 0.66393856145441477 1.3857435062527663 6.8994569568894804 3.9830705365166068 0.66197384893894184 0.28392795473337207 2.2663595699705184 1.4440820310264824 2.0672280956059694 0.89055125415325065
leaf_count=4307 471 83 514 176 149 61 227 909 18 23 388 64 61 165
internal_value=-0.000958021 0.0634168 -0.072692 0.0778865 -0.0842736 0.0596959 0.0648147 -0.0629129 0.0141258 -0.0431114 -0.0306526 0.0450776 0.0550586 -0.0926608
internal_weight=64.9159 34.2129 30.703 26.4487 25.5275 13.9999 12.6141 7.1973 7.76416 3.21423 2.55029 5.71466 4.27058 18.3302
internal_count=7616 1161 6455 672 5941 496 435 1469 489 560 411 208 144 4472
is_linear=0
shrinkage=0.08


Tree=11
num_leaves=15
num_cat=0
split_feature=47 47 48 47 13 20 16 36 5 44 23 63 48 4
split_gain=44.0821 3.88205 2.83419 1.46931 0.806166 0.681831 0.553338 0.362194 0.265562 0.415157 0.158431 0.145124 0.141417 0.117544
threshold=0.29285715520381933 0.44949495792388922 2.5000000000000004 0.52272728085517894 0.6031380593776704 5.5000000000000009 0.58925023674964916 10.949999809265138 0.1956819295883179 47.866666793823249 0.15254393219947818 0.45000000298023229 1.0000000180025095e-35 0.58456590771675121
decision_type=2 2 2 2 2 2 2 2 2 2 2 2 2 2
left_child=2 7 4 6 5 -1 8 11 9 -3 -8 -2 -6 -12
right_child=1 3 -4 -5 12 -7 10 -9 -10 -11 13 -13 -14 -15
leaf_value=-0.090981726238368227 0.021727811299505875 0.027921965731744991 -0.017114246567220413 0.097179895711454842 -0.083824209890562287 -0.034061911240528722 0.086315183592121744 0.064878421991757834 0.068325995419374078 0.082087675238396399 0.025311189360367067 -0.001293598675735301 -0.022796898283627756 0.07605123982633813
leaf_weight=21.060187108349066 2.8949573752470297 5.0478639900684374 5.0125567342620334 12.034372414462267 0.28798154462128778 1.4389053275808681 4.2710927305743089 0.7876715026795863 2.5543852597475052 1.1036074198782442 0.53154142852872588 4.4407030884176493 1.5563885886222122 0.64893126580864191
leaf_count=5504 173 205 508 180 76 174 112 20 88 18 38 319 207 51
internal_value=7.51298e-05 0.0616432 -0.0718936 0.0766284 -0.0831732 -0.0873415 0.0591588 0.013327 0.0466433 0.0376396 0.0791454 0.00779161 -0.0323258 0.0532041
internal_weight=63.6711 34.3151 29.356 26.1918 24.3435 22.4991 14.1574 8.12333 8.70586 6.15147 5.45157 7.33566 1.84437 1.18047
internal_count=7673 1204 6469 692 5961 5678 512 512 311 223 201 492 283 89
is_linear=0
shrinkage=0.08


Tree=12
num_leaves=15
num_cat=0
split_feature=47 47 25 47 20 16 47 47 5 28 59 56 15 36
split_gain=38.763 5.11749 1.54648 1.41708 0.752564 0.590919 0.524243 0.2493 0.200714 0.191411 0.164245 0.113837 0.110703 0.178158
threshold=0.21111111342906955 0.44949495792388922 0.71395435929298412 0.52272728085517894 5.5000000000000009 0.58507543802261364 1.0000000180025095e-35 0.34848485887050634 0.19282491505146029 0.70726323127746593 0.31266666948795324 0.22523666918277743 0.60652619600296032 4.4500000476837167
decision_type=2 2 2 2 2 2 2 2 2 2 2 2 2 2
left_child=2 7 4 5 6 8 -1 12 9 -3 -4 -7 -2 -14
right_child=1 3 10 -5 -6 11 -8 -9 -10 -11 -12 -13 13 -15
leaf_value=-0.089503238070745061 0.005374700174825984 0.052946674685532526 -0.033836013384978096 0.096335658980649455 -0.026909353814215081 0.081120733407834059 -0.0058809093821279171 0.02740607836971001 0.062755559563873881 0.02158946861390958 0.010693266983662185 0.052370551375798831 0.0084684812392562415 -0.048605220127350343
leaf_weight=20.108964837854739 6.3468806478194875 2.0320840552449244 2.6264441241510208 10.682691993191836 1.4007748081348825 4.9083026242442429 0.49153729761019249 3.2065600170753896 2.1466917116194963 3.2201247112825513 0.66418998758308578 1.0743412720039485 0.71498038130812325 0.6857756357640028
leaf_count=5526 397 62 375 182 169 148 38 168 76 140 77 77 64 123
internal_value=-0.000531765 0.0539744 -0.0759993 0.0746079 -0.0836498 0.0572623 -0.087508 0.0086464 0.0421454 0.0337216 -0.0248481 0.0759579 0.000882218 -0.0194734
internal_weight=60.3103 35.0184 25.2919 24.0642 22.0013 13.3815 20.6005 10.9542 7.3989 5.25221 3.29063 5.98264 7.74764 1.40076
internal_count=7622 1437 6185 685 5733 503 5564 752 278 202 452 225 584 187
is_linear=0
shrinkage=0.08


Tree=13
num_leaves=15
num_cat=0
split_feature=47 47 47 25 20 51 7 47 47 68 21 39 28 59
split_gain=36.14 5.05682 1.70904 1.41625 0.754033 0.469184 0.568484 0.404071 0.244584 0.209007 0.234595 0.167218 0.174148 0.154335
threshold=0.23611111193895343 0.43650794029235845 0.52272728085517894 0.71395435929298412 5.5000000000000009 1.0000000180025095e-35 0.54006919264793407 1.0000000180025095e-35 0.34848485887050634 65.500000000000014 0.60798117518424999 32.291666030883796 0.71235483884811412 0.47093333303928381
decision_type=2 2 2 2 2 2 2 2 2 2 2 2 2 2
left_child=3 8 5 4 7 6 11 -1 -2 -8 -11 12 -3 -5
right_child=1 2 -4 13 -6 -7 9 -9 -10 10 -12 -13 -14 -15
leaf_value=-0.087436549910567041 -0.0024357726489104047 0.063991285456035371 0.095642085071634825 -0.031064587251387877 -0.027225980307522803 0.0099395728920878296 0.086325334209023094 -0.014301494844950531 0.025831464284131411 0.076783992345596838 0.022782277003838277 0.018649478969519729 0.03196844193440547 0.028206468561227886
leaf_weight=19.368449708679702 7.4285170491784793 2.3033918626606464 11.041072333697228 3.0541945132426913 1.5243283174931992 1.4329869607463486 3.9777541989460588 0.49586679041385551 2.6607063123956323 1.2986250449903312 0.8530552047304808 1.6007430050522087 2.0579191744327545 0.30967174493707705
leaf_count=5633 573 71 186 437 180 66 138 41 146 45 60 65 79 36
internal_value=-3.04357e-05 0.0527038 0.0722883 -0.073861 -0.0814499 0.0532228 0.0583524 -0.0856109 0.0050188 0.0754603 0.0553745 0.0407642 0.0488811 -0.0256082
internal_weight=59.4073 34.6548 24.5655 24.7525 21.3886 13.5245 12.0915 19.8643 10.0892 6.12943 2.15168 5.96205 4.36131 3.36387
internal_count=7756 1429 710 6327 5854 524 458 5674 719 243 105 215 150 473
is_linear=0
shrinkage=0.08


Tree=14
num_leaves=15
num_cat=0
split_feature=47 47 48 47 13 36 1 57 51 59 66 39 63 17
split_gain=31.9061 3.3906 2.40274 1.38298 0.913887 0.585996 0.393144 0.380719 0.19968 0.198513 0.194998 0.152885 0.134264 0.13219
threshold=0.29285715520381933 0.52272728085517894 2.5000000000000004 0.41428571939468389 0.6031380593776704 11.050000190734865 0.56685525178909313 0.1100004054605961 1.0000000180025095e-35 0.31266666948795324 71.549999237060561 30.774999618530277 0.45000000298023229 0.081143449991941466
decision_type=2 2 2 2 2 2 2 2 2 2 2 2 2 2
left_child=2 3 4 12 5 -1 -5 13 11 -6 -9 -7 -2 -8
right_child=1 -3 -4 6 9 8 7 10 -10 -11 -12 -13 -14 -15
leaf_value=-0.0872927441920852 0.021361198775151614 0.094547140516454214 -0.015590990124376017 0.037167400496444535 -0.034483527847519076 -0.020524005545016426 0.063326401616609143 -0.023088771988710927 -0.095035806881013485 0.036626907491440923 0.045280613431055688 -0.071091912842054586 -0.0017685135465998272 0.087624659970115745
leaf_weight=16.783173521282162 2.6588463203515902 9.678346533328293 5.0854349667206398 6.7079455573111773 1.5201728555839498 1.4297934202477329 4.4108013482764363 0.40480107348412253 0.41711354698054481 0.30099409585818637 0.78419767320156097 0.52246700297109772 4.0570161731448025 2.1224650265648961
leaf_count=5169 152 181 520 257 251 218 144 57 101 31 66 176 293 61
internal_value=0.000239076 0.0553282 -0.0649239 0.0373782 -0.0768855 -0.0820349 0.0513354 0.0636423 -0.044792 -0.0227307 0.0220039 -0.0340571 0.00738866 0.0712202
internal_weight=56.8836 30.8244 26.0591 21.1461 20.9737 19.1525 14.4302 7.72227 2.36937 1.82117 1.189 1.95226 6.71586 6.53327
internal_count=7677 1211 6466 1030 5946 5664 585 328 495 282 123 394 445 205
is_linear=0
shrinkage=0.08


Tree=15
num_leaves=15
num_cat=0
split_feature=47 47 47 25 20 1 51 47 11 36 24 30 48 59
split_gain=29.1698 4.39923 1.57036 1.56808 0.559674 0.398733 0.40922 0.394299 0.176605 0.187464 0.161519 0.141218 0.144353 0.139047
threshold=0.21111111342906955 0.52272728085517894 0.41428571939468389 0.714796543121338 5.5000000000000009 0.5443289875984193 1.0000000180025095e-35 1.0000000180025095e-35 0.031150428578257564 7.3500001430511483 0.71791961789131176 0.57084769010543834 5.5000000000000009 0.47093333303928381
decision_type=2 2 2 2 2 2 2 2 2 2 2 2 2 2
left_child=3 2 -2 4 7 8 10 -1 -4 -10 -7 -12 -13 -5
right_child=1 -3 5 13 -6 6 -8 -9 9 -11 11 12 -14 -15
leaf_value=-0.085417823846707444 0.0039005255305967729 0.094073513666525235 0.018355438428090853 -0.024867816758089023 -0.029155295746155396 0.073766578141033781 0.011183869955780032 -0.0090836560993866507 0.026400860779283226 0.069660432740382319 0.016467061561501892 0.081131403363768992 0.03233498968967094 0.029401529585281885
leaf_weight=17.129916598903957 9.2869742810726166 9.4748700801283103 3.2851774133741856 2.8562061972916122 1.303357146680354 4.6318631963804364 1.0311300586909053 0.44431291054934163 1.3923088926821949 1.1882720757275818 0.65810187626630101 0.91902980860322692 0.6714930864982307 0.33790371567010868
leaf_count=5607 673 180 141 410 161 136 44 35 57 39 49 66 44 37
internal_value=2.53599e-05 0.0481792 0.0293257 -0.0709655 -0.0797367 0.0464642 0.0581829 -0.0834879 0.0306584 0.0463205 0.0652263 0.0476344 0.0605303 -0.0191267
internal_weight=54.6109 32.5392 23.0644 22.0717 18.8776 13.7774 7.91162 17.5742 5.86576 2.58058 6.88049 2.24862 1.59052 3.19411
internal_count=7679 1429 1249 6250 5803 576 339 5642 237 96 295 159 110 447
is_linear=0
shrinkage=0.08


end of trees

feature_importances:
Column_47=64
Column_48=16
Column_36=14
Column_20=13
Column_63=10
Column_57=9
Column_25=8
Column_51=8
Column_1=7
Column_13=7
Column_5=5
Column_7=5
Column_28=5
Column_59=5
Column_15=4
Column_16=4
Column_21=3
Column_23=3
Column_29=3
Column_34=3
Column_35=3
Column_56=3
Column_3=2
Column_4=2
Column_39=2
Column_2=1
Column_8=1
Column_11=1
Column_12=1
Column_17=1
Column_22=1
Column_24=1
Column_30=1
Column_31=1
Column_33=1
Column_44=1
Column_46=1
Column_49=1
Column_66=1
Column_68=1
Column_70=1

parameters:
[boosting: gbdt]
[objective: lambdarank]
[metric: ndcg]
[tree_learner: serial]
[device_type: cpu]
[data_sample_strategy: bagging]
[data: ]
[valid: ]
[num_iterations: 2000]
[learning_rate: 0.08]
[num_leaves: 15]
[num_threads: 0]
[seed: 7]
[deterministic: 0]
[force_col_wise: 0]
[force_row_wise: 0]
[histogram_pool_size: -1]
[max_depth: -1]
[min_data_in_leaf: 40]
[min_sum_hessian_in_leaf: 0.001]
[bagging_fraction: 0.8]
[pos_bagging_fraction: 1]
[neg_bagging_fraction: 1]
[bagging_freq: 1]
[bagging_seed: 17422]
[bagging_by_query: 0]
[feature_fraction: 1]
[feature_fraction_bynode: 1]
[feature_fraction_seed: 7040]
[extra_trees: 0]
[extra_seed: 6516]
[early_stopping_round: 0]
[early_stopping_min_delta: 0]
[first_metric_only: 0]
[max_delta_step: 0]
[lambda_l1: 0]
[lambda_l2: 0]
[linear_lambda: 0]
[min_gain_to_split: 0]
[drop_rate: 0.1]
[max_drop: 50]
[skip_drop: 0.5]
[xgboost_dart_mode: 0]
[uniform_drop: 0]
[drop_seed: 15215]
[top_rate: 0.2]
[other_rate: 0.1]
[min_data_per_group: 100]
[max_cat_threshold: 32]
[cat_l2: 10]
[cat_smooth: 10]
[max_cat_to_onehot: 4]
[top_k: 20]
[monotone_constraints: ]
[monotone_constraints_method: basic]
[monotone_penalty: 0]
[feature_contri: ]
[forcedsplits_filename: ]
[refit_decay_rate: 0.9]
[cegb_tradeoff: 1]
[cegb_penalty_split: 0]
[cegb_penalty_feature_lazy: ]
[cegb_penalty_feature_coupled: ]
[path_smooth: 0]
[interaction_constraints: ]
[verbosity: -1]
[saved_feature_importance_type: 0]
[use_quantized_grad: 0]
[num_grad_quant_bins: 4]
[quant_train_renew_leaf: 0]
[stochastic_rounding: 1]
[linear_tree: 0]
[max_bin: 255]
[max_bin_by_feature: ]
[min_data_in_bin: 3]
[bin_construct_sample_cnt: 200000]
[data_random_seed: 61]
[is_enable_sparse: 1]
[enable_bundle: 1]
[use_missing: 1]
[zero_as_missing: 0]
[feature_pre_filter: 1]
[pre_partition: 0]
[two_round: 0]
[header: 0]
[label_column: ]
[weight_column: ]
[group_column: ]
[ignore_column: ]
[categorical_feature: ]
[forcedbins_filename: ]
[precise_float_parser: 0]
[parser_config_file: ]
[objective_seed: 15521]
[num_class: 1]
[is_unbalance: 0]
[scale_pos_weight: 1]
[sigmoid: 1]
[boost_from_average: 1]
[reg_sqrt: 0]
[alpha: 0.9]
[fair_c: 1]
[poisson_max_delta_step: 0.7]
[tweedie_variance_power: 1.5]
[lambdarank_truncation_level: 100]
[lambdarank_norm: 1]
[label_gain: 0,1,3,7,15,31,63,127,255,511,1023,2047,4095,8191,16383,32767]
[lambdarank_position_bias_regularization: 0]
[eval_at: 10,50]
[multi_error_top_k: 1]
[auc_mu_weights: ]
[num_machines: 1]
[local_listen_port: 12400]
[time_out: 120]
[machine_list_filename: ]
[machines: ]
[gpu_platform_id: -1]
[gpu_device_id: -1]
[gpu_use_dp: 0]
[num_gpu: 1]

end of parameters

pandas_categorical:null
